<?xml version="1.0" encoding="UTF-8" standalone="yes"?>
<PMML xmlns="http://www.dmg.org/PMML-4_2" version="4.2">
    <Header description="linear regression">
        <Application name="Apache Spark MLlib" version="2.0.1"/>
        <Timestamp>2017-01-13T14:47:13</Timestamp>
    </Header>
    <DataDictionary numberOfFields="12">
        <DataField name="field_0" optype="continuous" dataType="double"/>
        <DataField name="field_1" optype="continuous" dataType="double"/>
        <DataField name="field_2" optype="continuous" dataType="double"/>
        <DataField name="field_3" optype="continuous" dataType="double"/>
        <DataField name="field_4" optype="continuous" dataType="double"/>
        <DataField name="field_5" optype="continuous" dataType="double"/>
        <DataField name="field_6" optype="continuous" dataType="double"/>
        <DataField name="field_7" optype="continuous" dataType="double"/>
        <DataField name="field_8" optype="continuous" dataType="double"/>
        <DataField name="field_9" optype="continuous" dataType="double"/>
        <DataField name="field_10" optype="continuous" dataType="double"/>
        <DataField name="target" optype="continuous" dataType="double"/>
    </DataDictionary>
    <RegressionModel modelName="linear regression" functionName="regression">
        <MiningSchema>
            <MiningField name="field_0" usageType="active"/>
            <MiningField name="field_1" usageType="active"/>
            <MiningField name="field_2" usageType="active"/>
            <MiningField name="field_3" usageType="active"/>
            <MiningField name="field_4" usageType="active"/>
            <MiningField name="field_5" usageType="active"/>
            <MiningField name="field_6" usageType="active"/>
            <MiningField name="field_7" usageType="active"/>
            <MiningField name="field_8" usageType="active"/>
            <MiningField name="field_9" usageType="active"/>
            <MiningField name="field_10" usageType="active"/>
            <MiningField name="target" usageType="target"/>
        </MiningSchema>
        <RegressionTable intercept="1.0222230566641861">
            <NumericPredictor name="field_0" coefficient="0.17922788085110355"/>
            <NumericPredictor name="field_1" coefficient="0.009107867873464806"/>
            <NumericPredictor name="field_2" coefficient="0.006163233324190579"/>
            <NumericPredictor name="field_3" coefficient="0.04026980269262936"/>
            <NumericPredictor name="field_4" coefficient="0.0016565581481962825"/>
            <NumericPredictor name="field_5" coefficient="0.020764592920206215"/>
            <NumericPredictor name="field_6" coefficient="-0.004820462549505743"/>
            <NumericPredictor name="field_7" coefficient="0.022028866703724653"/>
            <NumericPredictor name="field_8" coefficient="0.07450294317944496"/>
            <NumericPredictor name="field_9" coefficient="0.015828824124849417"/>
            <NumericPredictor name="field_10" coefficient="0.24895759807768916"/>
        </RegressionTable>
    </RegressionModel>
</PMML>
